#ifndef WEIGHTS_H
#define WEIGHTS_H

// 4 Kernels of size 3x3
float conv_kernels[36] = {-0.085257, 1.010003, 0.954610, -1.024719, -0.143944, 0.240169, -0.890349, -1.248300, -1.089205, 0.173836, 0.191699, -0.081022, 0.058265, 0.203134, 0.054847, -0.380671, 0.346026, 0.341117, -1.495949, -0.061829, 0.611676, -0.303760, 0.767318, 0.209877, 0.024613, 0.270531, -0.521499, 0.396128, 0.595464, -0.079117, 0.453303, 0.557553, -1.243284, -1.673162, -1.130785, -0.917177};

// Biases for the 10 output classes
float fc_bias[10] = {0.181308, 1.341582, -0.103935, -0.623577, 0.410071, 0.278633, 0.001233, 0.845376, -0.896249, -0.534485};

// Weights for Fully Connected layer (10 x 676)
float fc_weight[10][676] = {
  {-0.069898, -0.062110, -0.082814, -0.153520, -0.025741, 0.117864, 0.238172, 0.269937, 0.218452, -0.105331, -0.084388, -0.094979, 0.019359, -0.239694, -0.106057, 0.297556, 0.385714, -0.227756, -0.095039, 0.077867, 0.498714, 0.115623, -0.065966, -0.227473, 0.062254, 0.044807, -0.384876, -0.820386, -0.656922, -0.221669, -0.808823, -0.751150, -0.165213, 0.248272, 0.139065, 0.349880, 0.008662, 0.090788, -0.219240, 0.005138, 0.318374, -0.073776, -0.423610, -0.556139, -0.294151, -0.138033, 0.029859, 0.505707, 0.354391, 0.816990, -0.008780, 0.004823, 0.331967, -0.383721, -0.131369, -0.380498, -0.272814, -0.434898, -0.387189, 0.196802, 0.212750, 0.381421, 0.353688, 0.055201, -0.656516, 0.487440, -0.177568, -0.560170, -0.929037, -0.666699, -0.481182, -0.055421, 0.376242, -0.166472, 0.132380, 0.158189, -0.247362, -0.573601, -0.020393, 0.039994, -0.310812, -1.287986, -0.655144, -0.786485, -0.515265, -0.300820, -0.244358, 0.275914, -0.005355, -0.361239, -0.557866, -1.148122, -0.099223, -0.193100, -0.738253, -0.766454, -0.397970, -0.423928, -0.532176, -0.570187, 0.150445, -0.234683, -0.354648, -0.286639, -0.867742, 0.019681, -0.077743, -0.412994, -0.251933, -0.649047, -0.334384, -0.470229, -0.442327, -0.184463, -0.371917, -0.123206, -0.150953, -0.564142, -0.142453, -0.238379, -0.073740, 0.364748, -0.160599, -0.067559, -0.185039, -0.381527, -0.435177, -0.314718, -0.571035, -0.665886, -0.383333, -0.116992, -0.014388, -0.011571, 0.279632, 0.512921, 0.000372, -0.179286, -0.470482, -0.313862, -0.137640, -0.567425, -0.131998, -0.856840, -0.139214, 0.347752, 0.385869, 0.218772, 0.362265, 0.293811, -0.058500, -0.159197, -0.061305, 0.001956, -0.753270, -0.064557, -0.598955, -0.158523, -0.217209, 0.104676, 0.082893, 0.159180, 0.285729, 0.218631, -0.046047, -0.661743, -0.482765, -0.489770, -0.196787, -0.171788, -0.315128, -0.316612, -0.433791, -0.629938, -0.716255, -0.837117, -0.727709, -0.480910, -0.083697, 0.064288, 0.081823, -0.963185, -0.782993, -0.908809, -0.608381, -0.242168, -0.124526, -0.157568, -0.141805, -0.330114, -0.324973, -0.126720, -0.116493, -0.070208, -0.208430, -0.095446, -0.415129, -0.372247, -0.335979, -0.041127, -0.175070, 0.009241, 0.143189, 0.043027, 0.076172, 0.245377, 0.154323, -0.674704, 0.266680, -0.482441, -0.053090, -0.125539, 0.007267, 0.051101, 0.330870, 0.413904, 0.533615, 0.363042, 0.226786, 0.232623, -0.222869, 0.497805, -0.284717, 0.115693, -0.002400, 0.173194, 0.191957, 0.159915, 0.254081, 0.404194, 0.567551, 0.378307, 0.127971, -0.541787, 0.236218, -0.054388, 0.274473, 0.179288, 0.284529, -0.004025, -0.298233, -0.503976, 0.007363, 0.184788, 0.436348, 0.376204, -0.367642, -0.755966, 0.090299, 0.347804, 0.365133, 0.304581, -0.064473, -0.867371, -0.924217, -0.339027, 0.046081, 0.241516, 0.430116, -0.173767, -0.525668, 0.041281, 0.158737, 0.306096, 0.186741, -0.235758, -1.077421, -0.832263, -0.408057, 0.052983, 0.105919, 0.388308, -0.146822, -0.456166, 0.094356, 0.037615, 0.234509, 0.165184, -0.170400, -0.805666, -0.488959, -0.158026, -0.069315, 0.012047, 0.111829, -0.365219, -0.329595, -0.028153, 0.025276, -0.000147, 0.194417, 0.070497, -0.284162, -0.224743, -0.125370, -0.104871, 0.005945, 0.040034, -0.341012, -0.519639, -0.157740, 0.112415, 0.061160, 0.093213, 0.273250, -0.047925, -0.061960, -0.192681, -0.179230, 0.026061, -0.202065, -0.052424, -0.211409, -0.750327, 0.027383, 0.299758, 0.227531, 0.244084, 0.115092, -0.040351, -0.252049, -0.454211, -0.139418, -0.429097, -0.579141, -0.432008, -0.407101, -0.610100, -0.415728, -0.378227, -0.497320, -0.489105, -0.452303, -0.546142, -0.879783, -0.963245, -0.632994, -0.164563, -0.137505, -0.097305, -0.045187, -0.117571, -1.064579, -0.676911, -0.626213, -0.732907, -0.974839, -0.562020, -0.115693, 0.054636, 0.074365, -0.438024, -0.336319, -0.649957, -0.381504, -0.321990, -0.367196, -0.312414, -0.267957, -0.114756, -0.148671, -0.097943, 0.069543, -0.270771, -0.380519, -0.841381, -0.354714, -0.148870, -0.104801, -0.073763, -0.101319, 0.055237, 0.052103, -0.042634, 0.033086, -0.251377, -0.244734, 0.178477, -0.524404, 0.044615, -0.267879, -0.011782, -0.235802, 0.038003, 0.255515, 0.282357, 0.269764, 0.082088, -0.199658, 0.021111, 0.284571, -0.320545, 0.088211, -0.015027, 0.107314, 0.122781, 0.138499, -0.087647, -0.112628, 0.078157, 0.252931, 0.192799, -0.191196, 0.427276, -0.094992, 0.265649, 0.310951, 0.238563, 0.243071, -0.148101, -0.263362, 0.085325, 0.162198, 0.374642, 0.473885, -0.143187, 0.007301, -0.008180, 0.365207, 0.488505, 0.549763, 0.183394, -0.353233, -0.184315, 0.244539, 0.141942, 0.383079, 0.401307, -0.113206, -0.902244, 0.165153, 0.506640, 0.485567, 0.244454, 0.122974, -0.478384, 0.131372, 0.291613, 0.188746, 0.265758, 0.301356, -0.442626, -0.600114, 0.237957, 0.106440, 0.109568, 0.195632, -0.121265, -0.014812, 0.103690, 0.127310, 0.252954, 0.090684, 0.031268, -0.676448, -0.599219, 0.011635, -0.120868, 0.175241, 0.283993, 0.084678, 0.172148, 0.215170, 0.138624, 0.116373, 0.322294, -0.339767, -0.560549, -0.459231, -0.233636, -0.034046, 0.061816, 0.170198, 0.031790, -0.028821, 0.051290, -0.254878, 0.000261, -0.039992, -0.451746, 0.216896, -0.693130, -0.184220, 0.344694, 0.077849, 0.115760, 0.206269, -0.033506, -0.267597, -0.395839, 0.008451, -0.463603, -0.863493, -0.004157, -0.570641, -0.122574, -0.454501, -0.408752, -0.696802, -0.425479, -1.004188, -1.418044, -1.326152, -1.123894, -0.748294, -0.276030, -0.045080, -0.026787, -0.060707, 0.300900, 0.317317, 0.262788, -0.064130, 0.232140, 0.377446, -0.404808, -0.871672, -0.645439, -0.972698, -0.324667, 0.072447, -0.370067, 0.300638, 0.300498, 0.133429, 0.039779, -0.055500, -0.260834, 0.059321, -0.248505, -0.714725, -0.100401, -0.086458, -0.522043, -0.811614, -0.581017, -0.301209, -0.409223, -0.226097, 0.109278, -0.265399, -0.876225, -0.551461, -0.507838, -0.287963, -0.865750, 0.293785, 0.342472, 0.118509, -0.721985, -0.477249, -0.474242, -0.490689, -0.644749, -0.760110, -1.315601, -1.299205, -0.593269, -0.543941, 0.498996, 0.131945, 0.209379, -0.196492, 0.070600, -0.223641, -0.473502, -0.441076, -0.560036, -1.155210, -1.393134, -0.888506, -0.973332, -0.043925, 0.237875, -0.550096, 0.132045, -0.089374, -0.364845, 0.026235, -0.098681, -0.556289, -1.358306, -0.867621, -0.697084, -0.673463, 0.198992, -0.259591, -0.399432, -0.266698, -0.120813, -0.350835, -0.087730, -0.527848, -0.586431, -0.082486, -0.403295, -0.342168, -0.647751, -0.686348, -0.887641, -0.627617, -0.256658, -0.106200, -0.152531, -0.268846, -0.689811, -0.476518, 0.059719, 0.025511, 0.183999, -0.222886, -0.802852, -0.239588, -0.496626, -0.764813, -0.279869, -0.047896, -0.354354, 0.082949, 0.555618, 0.048373, -0.052429, -0.033317, -0.111362, 0.019628, -0.418074, -0.704084, -0.774849, -0.927050, -0.351201, 0.458706, 0.542164, 0.368613, 0.135810, 0.204179, 0.057762, -0.291714, -0.243124, 0.080257, -0.018457, -0.247217, -0.644181, -0.503492, 0.142057, 0.038953, 0.362235, 0.233368, 0.288693, 0.044351, 0.114538, -0.689751, -0.547398, -0.019818, -0.028395, 0.167215, 0.211670, 0.367739, 0.360335, 0.303193, 0.145317, 0.261109, -0.245309, -0.639683, -0.516220, -0.291981, -0.091331, -0.163149, -0.149152, -0.318347, -0.197790, 0.003085, -0.314164, -0.717702, -1.035447, -0.681006, -0.575925},
  {0.036131, -0.077010, -0.061837, -0.112363, 0.021838, -0.097553, 0.094067, -0.442578, -0.291340, -0.220046, -0.157991, -0.097964, -0.022195, 0.245845, -0.125119, 0.074443, -0.438939, 0.172481, 0.037099, -1.064373, -0.490744, -0.115760, 0.057064, 0.006206, -0.160073, -0.167950, 0.384331, 0.463393, 0.286856, 0.266451, 0.072484, -0.346447, -0.389933, -0.598896, -0.557629, -0.607960, -0.805622, -0.514542, -0.418138, -0.278730, 0.255616, -0.290010, 0.079196, 0.121383, -0.415772, -0.652912, -0.871046, -0.940067, -0.904138, -0.739079, -0.633918, -0.403759, -0.748674, -0.449980, 0.218809, 0.354872, 0.165030, -0.560812, -0.446659, -0.408844, -0.592422, -0.985916, -0.455866, -0.499389, -0.577379, -0.362319, -0.760932, -0.016119, -0.065975, 0.100312, -0.355265, -0.282312, -0.400840, -0.406583, -0.460383, -0.153883, -0.172676, 0.233484, -0.265478, -0.177612, -0.424927, -0.222696, -0.399786, -0.416285, -0.072433, -0.108592, -0.385146, 0.202740, 0.102471, 0.076634, -0.371145, 0.290991, 0.405934, -0.356039, 0.058397, -0.815890, -0.336165, 0.294148, -0.344335, -0.840007, -0.325462, 0.167450, 0.301123, 0.205036, -0.240663, -0.234696, 0.027064, 0.241447, -0.640902, -0.052282, 0.436345, -0.301058, -0.285777, 0.077224, 0.341015, -0.042342, -0.547429, -0.384493, -0.822709, 0.197943, 0.429853, -0.496112, -0.432056, 0.152529, 0.145761, 0.328009, 0.679787, 0.550404, -0.096889, 0.239073, 0.079819, -0.165892, -0.044593, 0.103943, -0.259049, -0.055696, 0.312789, 0.643157, 0.777281, 0.388156, 0.283237, 0.349431, 0.400795, -0.198168, 0.377888, 0.016578, -0.197877, -0.040998, -0.102814, 0.069433, 0.097170, 0.450952, 0.214182, -0.074008, -0.320064, 0.354821, -0.427367, -0.607568, -0.196224, -0.175452, -0.138433, 0.126839, 0.052827, 0.042359, 0.305515, 0.250001, -0.103429, -0.206579, -0.088418, 0.226879, -0.600261, -1.003616, -0.635406, -0.348652, -0.162546, 0.225974, 0.401546, 0.084183, -0.356601, -1.246546, -0.616997, -0.408255, 0.331165, 0.550144, 0.086628, -0.260552, 0.181782, 0.173649, 0.369649, 0.177316, 0.284876, 0.260488, -0.007381, -0.084891, -0.604729, -0.030717, 0.395241, -0.241547, -0.246961, -0.131475, -0.021295, -0.009256, -0.106847, -0.096815, 0.134468, 0.087724, -0.024959, -0.377196, -0.616895, -0.112534, -0.018822, -0.276874, -0.374306, -0.256846, -0.015724, -0.042346, -0.212934, -0.138148, -0.037359, -0.199273, -0.654841, -0.586724, -0.227864, -0.178433, -0.318036, -0.348803, -0.191060, 0.483394, 0.355293, -0.112127, -0.103796, -0.165991, -0.343181, -0.367994, -0.140437, 0.107857, -0.528555, -0.440378, -0.599650, 0.092580, 0.761704, 0.484861, -0.279557, -0.177827, -0.085435, -0.141378, -0.368270, 0.237668, 0.290528, -0.394699, -0.246573, -0.542374, 0.210140, 0.651331, 0.465378, -0.506888, -0.498153, -0.225923, -0.459439, -0.285106, -0.137772, -0.166634, -0.461729, -0.465661, -0.362229, 0.048928, 0.764587, 0.200301, -0.734590, -0.760406, -0.624131, -0.109673, -0.066636, -0.434930, -1.854970, -0.725595, -0.466233, -0.420724, -0.020829, 0.726894, 0.056897, -0.456352, -0.300025, -0.270242, -0.007248, 0.282048, 0.214144, -0.258581, -0.269695, -0.173069, -0.044600, 0.139603, 0.418361, 0.102280, -0.122689, 0.085170, -0.138591, 0.170025, 0.422173, -0.212586, 0.230676, -0.231474, -0.171845, -0.097857, -0.035528, 0.204685, -0.011761, 0.105534, 0.057909, -0.062173, -0.228558, 0.496988, -0.255444, -0.171842, 0.064357, -0.173739, -0.164490, -0.084302, 0.018051, 0.085990, 0.175396, 0.025208, 0.061599, -0.484627, 0.041155, -0.191176, -0.612032, -0.319608, -0.198196, -0.306274, -0.525917, -0.281128, -0.257228, -0.451888, -0.181135, -0.155744, -0.073233, -0.165691, 0.244340, 0.151723, -0.279192, -0.767031, 0.030987, -0.191900, 0.630367, 0.552802, 0.434398, -0.028200, -0.591357, -0.961944, -0.504524, 0.117446, 0.014143, 0.243495, -0.006769, 0.177968, 0.071227, 0.251669, 0.486994, 0.578604, 0.352799, 0.151372, -0.086114, -0.299410, 0.265954, 0.497325, -0.131114, -0.183696, -0.249519, -0.020695, 0.254027, 0.020922, 0.157853, 0.461645, 0.305069, 0.014709, -0.141178, -0.314473, 0.080187, -0.297036, -0.327768, -0.351192, -0.240954, -0.114645, -0.003301, 0.247862, 0.171367, 0.193475, -0.082084, -0.659800, -0.552116, -0.208453, -0.159130, -0.177198, -0.414663, -0.186714, 0.051529, 0.195072, -0.241669, -0.208394, 0.065370, -0.309562, -0.063640, -0.390957, -0.152705, -0.133658, -0.651247, -0.353544, -0.080014, 0.523130, 0.019880, -0.570707, -0.223220, -0.010026, -0.179974, -0.236691, -0.116186, 0.035821, -0.354673, -0.312583, -0.395008, 0.460677, 0.493690, 0.072414, -0.374442, 0.103066, -0.273154, -0.535157, -0.259964, 0.332192, 0.026684, -0.280291, -0.354341, -0.328638, 0.356052, 0.334948, 0.170782, -0.580596, -0.198549, -0.414024, -0.400175, 0.181833, -0.317674, -0.554774, -0.857008, -0.670111, -0.280018, -0.259297, 0.350386, -0.210850, -0.170240, 0.115208, -0.152802, 0.136942, 0.087814, -0.672536, -1.139251, -0.327341, -0.132202, -0.340164, 0.029959, 0.237940, -0.624912, 0.003152, -0.076657, -0.364173, 0.111752, 0.278946, 0.195267, -0.087580, 0.120461, 0.198044, -0.101193, -0.162094, -0.439082, -0.671348, -0.237693, -0.627499, -0.044671, -0.077947, -0.015902, -0.138116, -0.023803, -0.060935, 0.170481, 0.028944, -0.022526, 0.175944, 0.165366, 0.305977, 0.120240, -0.161847, -0.085225, 0.214755, -0.339905, -0.463027, -0.039108, 0.077824, -0.076930, 0.184412, -0.017787, 0.243000, 0.170064, -0.178810, -0.045415, -0.138739, 0.210700, -0.029263, -0.016827, -0.020412, -0.225998, -0.229093, 0.353370, 0.119483, -0.949846, -1.017379, -0.762904, -0.471146, -0.108297, -0.064056, 0.213091, 0.347133, 0.172008, 0.410563, -0.144053, -0.321599, -0.949355, -0.561036, -0.034247, -0.869772, -1.076517, -0.838423, -0.472410, 0.361581, 0.473224, -0.076047, -0.882825, -0.661616, -0.676850, -0.285732, -0.520802, -0.607942, -0.161777, -0.511295, -0.538116, -0.319239, -0.680249, 0.192480, -0.630808, -0.810629, -0.472005, -0.402671, -0.599694, -0.810191, -0.571211, 0.034636, 0.363686, -0.004792, -0.621296, -0.540328, -0.622754, -0.530003, 0.170274, -0.022267, 0.038166, -0.706264, -0.803993, -0.847972, -0.136971, 0.149396, -0.420168, -0.908019, -0.098720, -0.114474, -0.261921, 0.009122, -0.053727, 0.284396, -0.647234, -0.860220, -0.649996, -0.090049, -0.145670, 0.106581, -0.418074, -0.419433, 0.427381, 0.229762, -0.067456, 0.819149, 0.509676, -0.163564, 0.178009, -0.494667, -0.096355, -0.128343, 0.153604, -0.765141, 0.386203, 0.855469, 0.192235, 0.047061, 0.657492, -0.540592, 0.423512, 0.721954, -0.255202, -0.728619, -0.180388, -0.103932, -0.300671, 0.411369, 0.573742, 0.376532, 0.718466, 0.493904, -0.511255, 0.868804, 0.533991, -1.173368, -0.411346, 0.638199, -0.670283, -0.503305, 0.519526, -0.224526, 0.452656, 0.599605, 0.292855, 0.092863, 0.334737, -0.620250, -0.477210, 0.260996, 0.258928, -0.161240, 0.005263, 0.455366, 0.058467, 0.621253, 0.590236, 0.602574, 0.093874, -0.723086, -0.714262, -0.175532, -0.010765, -0.050017, -0.201714, 0.381559, -0.339013, -0.001449, 0.457318, 0.312109, 0.522875, 0.383635, 0.136929, 0.196628, 0.052966, 0.243166, 0.229137, -0.599226, -0.281440, -0.414589, -0.948545, -0.427412, -0.186011, 0.130725, -0.310832, -0.017916, -0.096520, -0.203905, -0.120791, -0.253667, -0.108238, -0.256876},
  {0.010359, -0.017887, 0.023200, 0.029440, 0.054764, 0.077869, 0.428528, 0.472473, -0.063465, -0.128137, -0.165051, -0.119842, -0.018232, -0.261042, -0.297406, -0.093440, 0.731839, 0.140691, 0.651605, 0.894639, 0.721335, 0.070070, -0.061751, -0.207328, -0.032456, -0.154454, -0.112759, -0.134859, 0.256601, 0.187699, 0.542024, 0.476992, 0.316127, 0.526110, 0.391633, 0.403387, 0.040696, -0.202899, -0.053854, 0.130807, 0.041260, 0.128985, 0.107929, 0.118834, 0.199399, 0.394101, 0.188615, 0.100519, 0.158910, -0.426239, -0.824606, -0.459701, 0.101273, 0.148192, -0.040601, 0.175696, 0.357512, 0.308420, 0.474399, 0.183349, 0.009728, 0.025498, -0.496380, -0.458374, -0.497541, -0.156742, 0.060696, 0.286200, 0.387536, 0.432462, 0.367155, 0.071196, 0.057133, -0.039567, -0.364882, -0.546556, -0.213458, -0.298301, -0.458571, -0.036446, -0.054216, 0.246824, 0.008235, -0.150655, -0.474108, -0.741692, -0.753454, -1.057662, -0.790084, 0.187371, 0.578979, -0.198374, -0.563920, -0.213990, -0.473562, -0.509185, -0.254490, -0.177502, -0.609495, -0.717421, -0.379556, -0.195374, 0.500466, 0.595211, 0.599683, 0.431026, -0.042831, -0.443678, -0.519769, -0.305052, -0.242550, -0.157642, -0.211230, 0.207842, 0.564585, 0.680192, 0.726379, -0.107680, -0.050380, -0.160272, -0.186927, -0.272124, -0.035468, 0.039287, 0.121810, 0.408414, 0.870733, 0.875955, 0.373736, 0.211174, 0.376730, -0.082308, -0.526240, -0.246706, 0.018233, 0.031808, 0.076407, 0.443894, 0.578815, 0.817393, 0.878624, 0.332658, -0.171124, 0.160118, 0.050130, -0.017550, 0.084841, -0.033592, -0.061011, -0.035358, 0.133650, 0.463737, 0.394756, 0.267260, 0.347713, -0.125041, -0.764596, -0.636894, -0.277561, 0.037231, 0.061005, 0.174876, 0.065913, 0.158119, 0.346780, -0.027323, 0.085893, 0.150388, 0.460802, -0.381326, -0.340709, -0.210740, 0.013672, 0.152440, 0.348039, -0.102729, 0.068917, -0.236056, -0.678678, 0.128719, 0.060171, 0.130322, 0.010140, -0.150675, -0.089917, 0.011509, 0.067263, 0.147935, 0.108015, 0.195937, 0.225551, 0.013765, 0.129596, -0.283356, -0.054238, 0.061055, 0.078063, 0.043639, -0.181880, 0.006276, 0.029222, 0.140265, 0.148461, 0.236877, 0.141686, 0.322989, -0.305948, -0.022657, -0.018917, -0.087155, -0.296597, -0.258091, -0.098927, -0.034764, 0.111121, 0.033455, 0.100947, -0.016682, -0.157285, -0.207801, -0.017947, -0.162441, -0.227721, -0.495752, -0.570318, -0.546998, -0.482615, -0.256288, -0.024139, 0.173324, 0.065665, -0.259201, -0.143138, -0.324058, -0.537654, -0.571783, -0.752895, -0.719497, -0.575362, -0.568763, -0.648044, -0.445369, -0.039643, 0.089352, -0.352978, -0.369865, 0.433055, -0.174559, -0.219559, -0.277959, -0.219406, 0.033230, 0.017860, -0.129247, -0.217204, -0.267426, -0.203026, -0.634876, -0.404191, 0.293406, 0.290053, 0.170830, 0.210203, 0.194649, 0.344493, 0.455986, 0.194573, -0.064416, -0.164982, -0.309954, -0.274721, -0.292195, 0.505557, 0.124572, 0.252300, 0.248258, 0.210836, 0.375525, 0.417425, 0.184720, -0.030510, -0.238448, -0.261394, -0.103924, -0.022245, 0.377632, 0.249987, 0.185220, 0.006710, 0.253669, 0.215263, 0.192089, 0.150015, 0.087081, -0.015392, -0.081461, 0.057518, 0.052584, -0.056213, 0.173660, 0.090281, -0.004993, 0.049677, 0.054553, 0.128560, -0.026373, 0.152137, 0.215336, 0.194486, 0.177491, 0.031340, -0.106250, -0.290901, -0.034132, 0.088994, 0.037823, -0.108801, -0.057472, 0.032346, 0.154591, 0.397274, 0.224410, -0.020117, 0.126235, 0.158665, -0.244721, -0.477209, -0.420324, -0.420673, -0.577608, -0.223246, -0.186254, -0.006762, 0.278969, -0.050961, -0.209464, -0.043897, 0.402048, -0.075295, -0.062797, -0.113750, -0.096626, 0.097745, 0.097870, -0.331415, -0.312029, -0.064298, -0.594922, -0.333689, 0.174151, 0.006921, -0.223833, -0.366386, 0.064361, -0.006901, 0.120800, 0.238351, -0.007363, -0.145967, -0.227604, -0.206380, 0.095983, -0.212725, -0.400645, -0.268748, -0.116919, 0.064659, 0.007121, -0.013029, -0.062741, 0.020310, 0.079966, 0.001792, -0.177197, -0.105709, -0.412834, 0.088789, 0.042690, 0.025853, -0.175894, -0.232430, -0.081231, 0.017482, -0.058459, -0.266581, -0.235673, -0.090325, -0.085643, 0.106014, -0.059987, 0.236810, -0.260221, -0.386964, -0.406537, -0.374710, -0.484688, -0.412824, -0.085586, 0.087279, 0.226310, 0.196155, 0.029924, -0.119050, -0.183278, -0.393768, -0.738511, -0.955111, -0.808830, -0.970136, -0.501009, -0.243378, 0.066595, 0.095792, 0.120683, 0.067029, 0.649089, -0.418649, -0.523611, -0.401537, -0.032423, -0.115024, -0.104557, -0.159096, 0.012521, 0.121372, 0.070009, -0.221709, 0.021014, 0.467758, -0.034912, 0.096983, 0.322137, 0.352521, 0.353598, 0.323582, 0.120062, 0.073583, 0.121364, 0.114498, -0.009069, 0.195537, 0.632903, 0.328308, 0.173245, 0.179063, 0.442930, 0.387637, 0.418052, 0.168710, 0.033476, -0.069897, -0.279156, -0.279600, -0.184878, 0.329443, -0.013339, 0.125855, 0.158312, 0.236512, 0.365774, 0.289748, -0.036329, 0.219370, -0.170103, -0.111891, -0.019364, -0.072047, -0.018129, 0.306013, 0.104027, 0.143690, 0.117784, 0.111200, -0.147427, -0.178135, -0.009831, -0.215390, -0.052738, -0.110114, 0.192521, 0.262976, -0.040064, -0.027362, -0.153646, -0.043501, -0.145420, -0.164190, -0.264624, -0.407741, -0.056035, -0.061707, 0.114452, -0.015666, 0.239419, -0.700540, -0.644271, -0.375276, -0.583253, -0.804802, -0.924747, -1.127341, -1.313746, -0.864774, -0.980051, -0.103927, -0.217560, -0.070448, 0.034002, -0.033251, -0.170711, 0.093059, -0.470466, -0.499181, -0.392115, -0.617760, -0.913192, -1.412923, -0.807577, -1.097799, 0.006359, -0.300610, -0.171672, 0.057741, 0.268956, -0.022754, -0.049074, 0.341822, -0.736841, -1.113341, -1.211347, -1.065730, -0.859494, -0.296420, 0.128955, 0.130412, 0.235597, 0.476979, 0.096329, 0.048544, -0.483460, -0.740858, -0.652903, -1.442171, -1.565588, -1.124457, -0.288704, -0.156876, -0.235958, 0.816900, 0.771509, 0.177700, -0.038435, -0.130111, -0.232971, -0.420567, -1.350838, -1.103704, -0.573858, -0.013231, -0.332244, 0.021429, 0.557673, 0.457872, 0.314452, 0.181413, 0.099901, -0.069954, -0.138908, -0.640716, -0.385647, -0.328076, -0.353904, -0.602228, -0.099964, 0.844900, 0.896928, 0.607341, 0.500432, 0.399551, 0.359847, -0.008090, -0.223926, 0.081162, -0.100228, 0.051360, -1.405160, 0.854089, 1.452568, 1.018648, 0.550967, 0.241949, 0.006735, 0.552082, 0.605370, 0.395715, 0.290501, 0.841028, 0.748014, -0.670495, 0.190104, 0.759365, 1.184709, 0.745141, 0.260630, -0.007210, 0.678389, 0.413709, 0.456808, 0.323761, 0.818598, 0.694186, -0.475654, -0.376201, -0.333445, 0.433551, 0.337013, 0.401497, 0.361884, 0.479861, 0.236013, 0.363364, 0.382883, 0.489414, 0.626367, -0.085934, 0.238522, -0.051091, -0.156311, -0.190930, 0.010237, 0.004283, -0.020946, 0.124229, 0.168844, 0.225281, 0.369389, 0.088877, 0.175236, 0.343511, 0.040966, -0.180625, -0.182513, -0.075670, -0.227958, -0.011912, -0.121599, 0.076328, 0.075075, 0.212255, -0.162061, 0.313826, 0.223679, -0.058015, -0.067879, 0.022213, -0.058948, -0.117045, -0.238326, 0.251957, 0.401300, 0.126036, 0.211646, 0.057184, -0.389426, -0.641549, -0.434772, -0.387632, -0.590636, -0.355484, -0.475041, -0.137311, 0.189048, 0.019106, -0.307556, -0.024696, 0.452249},
  {-0.038441, -0.025844, 0.009165, 0.058800, -0.087649, -0.017183, -0.269852, -0.107756, -0.120754, -0.170010, -0.144036, -0.104184, -0.036948, 0.072153, 0.349897, 0.198839, -0.226021, 0.329036, 0.448459, 0.907822, 0.703635, 0.317916, -0.204859, -0.229217, -0.289473, -0.146021, -0.122367, 0.120322, 0.118907, 0.281316, 0.492198, 0.816753, 0.446166, 0.247572, 0.194815, 0.057880, 0.144382, -0.697656, -0.356740, -0.071690, -0.013232, 0.268673, 0.496581, 0.524835, 0.484851, 0.128880, -0.174215, -0.254018, -0.529871, -0.974863, -0.559780, -0.558064, -0.166640, -0.007190, 0.362731, 0.295559, 0.309091, 0.228933, -0.130808, -0.223777, -0.297649, -0.727230, -0.784542, -0.928585, -0.519597, 0.155766, -0.216401, 0.002928, -0.162798, -0.090311, 0.075276, -0.016057, -0.032106, -0.351515, -0.589885, -0.410461, -0.313108, -0.240872, -0.406360, -0.203090, -0.112536, 0.066783, -0.072712, 0.236534, 0.418751, 0.307242, 0.346410, 0.123209, -0.395383, -0.492659, -0.300313, -0.445373, -0.251963, -0.010404, 0.576139, 0.399983, 0.407159, 0.605619, 0.319136, 0.311576, -0.103354, -0.021581, -0.612763, -0.005114, 0.160400, 0.035003, 0.516711, 0.592791, 0.474372, 0.712348, 0.446569, 0.261294, 0.366227, -0.272024, -0.545862, -0.720508, -0.389819, 0.058939, 0.411651, 0.557260, 0.261220, 0.406918, 0.819668, 0.269399, 0.428619, -0.303464, -0.609663, -0.831988, -0.773430, -0.750810, 0.014898, 0.200181, 0.488175, 0.359564, 0.146427, -0.018094, -0.093184, -0.213875, -0.406772, -0.636774, -0.851662, -0.515472, -0.366508, 0.320676, -0.022046, 0.223998, 0.194569, 0.184964, -0.107396, -0.174499, -0.343792, -0.360402, -0.371434, -0.221848, 0.057896, -0.534536, 0.540633, 0.148762, 0.215538, 0.145153, 0.154443, -0.004621, -0.142441, -0.189012, -0.083039, -0.144621, -0.002881, -0.053010, -0.216569, -0.513846, 0.341384, 0.458659, 0.065185, -0.352874, -0.116641, 0.084036, 0.382457, 0.351115, -0.032997, -0.641206, -0.292095, -0.150077, -0.086861, 0.072813, 0.278701, -0.061165, -0.152916, -0.012525, 0.161685, 0.192994, 0.118757, 0.352696, 0.266681, -0.149267, -0.480438, -0.122057, 0.132709, 0.115264, 0.184523, 0.058676, 0.089620, 0.199827, 0.128614, 0.054955, 0.143569, 0.076941, 0.151058, -0.785054, 0.043795, 0.124390, 0.021971, -0.145804, -0.112673, -0.135532, 0.112918, 0.086189, -0.039704, -0.016775, 0.080324, -0.101412, -0.399624, 0.191574, -0.084603, -0.250594, -0.435794, -0.420196, -0.328304, 0.096928, 0.114320, 0.030978, -0.200244, -0.145680, 0.031879, -0.500935, -0.436098, -0.299900, -0.594253, -0.524671, -0.473187, -0.121353, 0.301807, 0.171853, 0.048017, -0.259479, -0.419975, -0.195867, -0.318774, -0.194866, -0.251383, -0.639666, -0.594463, -0.517823, -0.028385, 0.280034, 0.137269, 0.236022, 0.100508, -0.125177, -0.185799, -0.285177, 0.387505, -0.015060, -0.448065, -0.550575, -0.672980, -0.316002, -0.238859, -0.165348, 0.240143, 0.227204, 0.187024, 0.088531, -0.042785, 0.178696, 0.154231, -0.097095, -0.225476, -0.460565, -0.386991, -0.196665, -0.059273, 0.197935, 0.177970, 0.174945, 0.031373, -0.443216, -0.069136, 0.137036, 0.243679, 0.050775, -0.121881, -0.191514, 0.024201, 0.193669, 0.247438, 0.097905, 0.127712, 0.102156, -0.390358, 0.158789, 0.043055, 0.215362, 0.125989, 0.056932, -0.066929, 0.069070, 0.124294, 0.209872, 0.132514, 0.023652, 0.049531, -0.119142, 0.377807, 0.029687, 0.177314, 0.171147, 0.262125, 0.148900, 0.003467, 0.039303, 0.004110, 0.052832, -0.024645, 0.045975, -0.352815, 0.060701, 0.301911, 0.427372, 0.490423, 0.488698, 0.384320, 0.204240, -0.067710, -0.038225, -0.209245, -0.310248, -0.176170, -0.261199, -0.234150, -0.052757, 0.055507, 0.462849, -0.477738, -0.254859, -0.194383, -0.113027, 0.154231, 0.167631, -0.055671, -0.602621, -0.203710, 0.212912, 0.325345, 0.266310, -0.025003, -0.098645, -0.043347, 0.118207, 0.212811, 0.120254, 0.104458, -0.095039, 0.002383, -0.223764, 0.065720, 0.033570, 0.133770, -0.209759, 0.072242, 0.042975, 0.021747, -0.033879, -0.180111, -0.201065, -0.250095, -0.254405, -0.524494, -0.103176, 0.095595, 0.094335, -0.042999, -0.082835, -0.266651, -0.083619, -0.196059, 0.064128, 0.015543, -0.153108, -0.174274, -0.691957, -0.107149, 0.183766, -0.168831, -0.201511, -0.467246, -0.429175, 0.000955, -0.014101, 0.073707, 0.179407, 0.168584, -0.784280, -0.260146, 0.129026, -0.502694, -0.454471, -0.219701, 0.028473, 0.141235, 0.203306, 0.068779, 0.019185, 0.028826, -0.351939, -0.310875, -0.162477, -0.276426, -0.465329, -0.447119, -0.156160, -0.085878, -0.023421, 0.018171, -0.297865, -0.423979, -0.444658, -0.341183, -0.021963, 0.049076, -0.133286, -0.142930, -0.782887, -0.763219, -0.589138, -0.161304, -0.463818, -0.535604, -0.290788, -0.200383, -0.063160, 0.157125, -0.112225, 0.127735, -0.140111, -0.393558, -0.448304, -0.667939, -0.574580, -0.556246, -0.116956, 0.091114, -0.049473, 0.012486, 0.114361, -0.691787, 0.185811, 0.393491, 0.109534, -0.149658, -0.448844, -0.462705, -0.148223, -0.102600, 0.034899, 0.033498, 0.167346, -0.107265, -0.558482, 0.094793, 0.074386, 0.038743, -0.160716, -0.286606, -0.295600, -0.163457, -0.205806, 0.037858, -0.030599, 0.024526, -0.522499, -0.343277, 0.500729, -0.024523, 0.352509, 0.153636, 0.289727, 0.028128, 0.054795, -0.004162, 0.123292, -0.129682, -0.168437, -0.414748, -0.146663, 0.477717, -0.010548, 0.477959, 0.388270, 0.425510, 0.172258, 0.015978, 0.035910, 0.119946, 0.249118, -0.617756, -0.278802, -0.058675, 0.037200, -0.086563, -0.078576, -0.180192, -0.433836, -0.719075, -1.022286, -0.810942, -1.136545, -1.360409, -0.764539, -0.717225, -0.062232, -0.224059, -0.748409, 0.209773, -0.403544, -0.930210, -0.636223, -0.173031, -0.626953, -1.530866, -1.782826, -0.266459, -0.277134, -0.920282, -0.130476, -0.233147, 0.409829, 0.202222, -0.004662, -0.217991, -0.587394, -0.781431, -0.933077, -1.094285, -1.146603, -0.386376, -1.279678, 0.246941, 0.200435, 0.397556, 0.225255, 0.323246, 0.007431, -0.021358, -0.049773, -0.158514, -0.289246, -0.733512, -0.316836, -0.411879, -0.013131, 0.365287, 0.880763, 0.873343, 0.749978, 0.951889, 0.642060, 0.664947, 0.596592, 0.207415, 0.118441, 0.025301, -1.422286, -0.289624, 0.736342, 0.880719, 0.967095, 1.062534, 0.910704, 0.444709, 0.589593, 0.680965, 0.659102, 0.800643, 0.276284, -1.406741, -0.521857, 0.425506, 0.524112, 0.705323, 0.666528, 0.220501, 0.009538, 0.154636, 0.557473, 0.421927, 0.013231, -0.490828, -0.835868, -0.621986, -0.119023, -0.261916, -0.371013, 0.013404, -0.295165, -0.089207, 0.005533, -0.096612, -0.389121, -0.734253, -0.894322, -0.008565, 0.225125, -0.227929, -0.751705, -0.558619, -0.321272, -0.256746, -0.034392, -0.449301, -0.438202, -0.411462, -0.894813, -0.513544, -0.342906, -0.146859, -0.377298, 0.115258, -0.599963, -0.293772, -0.079177, -0.427691, 0.220179, 0.313889, 0.048602, -0.207330, -0.091404, -0.477094, -0.189335, -0.451251, -0.408310, -0.183342, 0.117264, 0.229143, 0.288098, 0.467732, 0.410510, 0.058768, 0.084881, -0.031497, -0.187548, 0.012119, 0.144609, -0.108718, 0.016522, -0.052334, -0.054294, 0.132641, 0.182490, 0.153369, -0.014009, -0.047543, -0.000666, -0.700556, 0.141762, 0.168441, -0.190268, -0.171140, -0.075601, 0.185724, 0.191597, 0.024983, 0.160613, -0.081142, -0.002101, -0.284433, -0.250475},
  {-0.026849, -0.127780, -0.234576, -0.385144, -0.442603, -0.356648, -0.601707, -0.485300, -0.630164, -0.324093, -0.342479, -0.126624, 0.030931, -0.473115, -0.356992, -0.440027, -0.393573, -0.219313, -0.614596, -0.659449, -0.714237, -0.405266, -0.303375, -0.244870, -0.144025, -0.096183, -0.070890, -0.571873, -0.315788, 0.140017, -0.125820, -0.044258, -0.323595, -0.855930, -0.573567, -0.692740, -0.030331, 0.027405, -0.062780, -0.199976, -0.125445, -0.209709, -0.175962, -0.263173, -0.652777, -1.289750, -1.844977, -1.551708, -0.999113, -0.573808, -0.055352, -0.064759, -0.179641, 0.098799, -0.075606, -0.533028, -0.688238, -0.971094, -1.145340, -0.976798, -1.136148, -0.984639, -0.609129, 0.020779, 0.127978, 0.006130, 0.038234, -0.427001, -0.233008, -0.350293, -0.837121, -0.743159, -0.345468, -0.456296, -0.511835, -0.804099, -0.130996, -0.303035, -0.243202, -0.184254, -0.023718, -0.051275, 0.080988, 0.373176, 0.083377, -0.491610, -0.106349, 0.131136, 0.129060, 0.402815, -0.170719, 0.045626, 0.442063, 0.321637, 0.215566, 0.209271, 0.479555, 0.400343, -0.056061, 0.004578, 0.315084, 0.398555, 0.085065, -0.102889, -0.120629, -0.177199, 0.030781, 0.125364, -0.016072, 0.298638, 0.293296, 0.183856, 0.236230, 0.255116, 0.309857, 0.093892, -0.309563, -0.242078, -0.166531, -0.062371, -0.214477, -0.086006, -0.084281, -0.153770, -0.155424, 0.217690, 0.400686, 0.241031, 0.376729, -0.529084, -0.168306, -0.234704, -0.129128, -0.273614, -0.733050, -0.546491, -0.227695, 0.244794, 0.543715, 0.825899, 0.238782, -0.648944, -0.602616, -0.302688, -0.388081, -0.490710, -0.554702, -0.677996, -0.346373, -0.059101, 0.158247, 0.161656, 0.230618, 0.362152, 0.104161, -0.077717, -0.334235, 0.049343, -0.226707, -0.087020, 0.129837, 0.048780, 0.140112, 0.193420, 0.194516, 0.153982, 0.018898, 0.144941, -0.105606, -0.469325, -0.389290, -0.539041, -0.866105, -0.987606, -0.789803, -0.287018, -0.521353, -0.655311, -0.101450, -0.550417, -0.509699, -0.512756, -0.145480, -0.196499, -0.418631, -0.262338, -0.212286, 0.007027, 0.434493, 0.217679, 0.129682, 0.088534, 0.341426, 0.100012, -0.256859, 0.224585, 0.319237, 0.102151, 0.401135, 0.260242, -0.050916, -0.080939, 0.004136, 0.119288, 0.020261, 0.254194, 0.564108, 0.064569, 0.113694, 0.338510, 0.223385, 0.323966, 0.080431, -0.241309, -0.678128, -0.324105, -0.124803, -0.053019, 0.045810, 0.113832, 0.330140, -0.074288, -0.013489, 0.174007, 0.262195, 0.142014, -0.269008, -0.886527, -0.159953, -0.029073, -0.128452, -0.176017, -0.410865, -0.120121, -0.254768, 0.083211, 0.177040, 0.375672, 0.314547, 0.025402, -0.777044, -0.054613, 0.096458, -0.158939, -0.298032, -0.802117, -0.403187, -0.085103, 0.110259, 0.229357, 0.352947, 0.310923, 0.132735, -0.334569, 0.209234, 0.304551, 0.091249, 0.009878, -0.399681, -0.173325, -0.057436, -0.077092, 0.043527, 0.253689, 0.164465, 0.221104, 0.181691, 0.361389, 0.331933, 0.162466, -0.036876, -0.109594, -0.491555, -0.123352, -0.220733, -0.130258, -0.041631, 0.096353, 0.197999, 0.284945, 0.371597, 0.098546, 0.056850, -0.019889, -0.098517, -0.415804, -0.322222, -0.211666, -0.209199, -0.152140, -0.201573, 0.022688, 0.171131, 0.219918, -0.119787, -0.155102, -0.299058, -0.401930, -0.492826, -0.233950, -0.337028, -0.356692, -0.319113, -0.360075, -0.320804, -0.105699, 0.116526, -0.167133, -0.205815, -0.256805, -0.482493, -0.535850, -0.136284, -0.204974, -0.355471, -0.315595, -0.210535, -0.237870, -0.163318, -0.035430, 0.003945, -0.035998, -0.199977, -0.258700, -0.224158, -0.228147, 0.045212, -0.266676, -0.772875, -0.434344, -0.458998, -0.444709, -0.269945, -0.353329, -0.201251, -0.283528, -0.125561, -0.355668, -0.063369, -0.242556, -0.495429, -0.704288, -1.194611, -0.700408, -0.422063, -0.468812, -0.583948, -0.733725, -0.458272, -0.360194, -0.474116, -0.525430, -0.017483, -0.368352, -0.637897, -0.268967, -0.092732, 0.341303, 0.260420, 0.370262, 0.509217, 0.239336, 0.337741, -0.124547, -0.188727, -0.334933, 0.081184, 0.357104, 0.303921, 0.215220, 0.271656, 0.251865, 0.347180, 0.456947, 0.342641, 0.473640, -0.011487, 0.032559, 0.255530, -0.184833, 0.315003, 0.120971, 0.083226, -0.089701, 0.299607, 0.611236, 0.717864, 0.656449, 0.117595, -0.033722, 0.041139, 0.186032, -0.020778, 0.086281, 0.235266, 0.266823, -0.067174, 0.578610, 0.683739, 0.507195, 0.176251, -0.088957, -0.388058, -0.022663, -0.166917, 0.072560, 0.510709, 0.353846, 0.342489, -0.178031, 0.337425, 0.328072, 0.325234, 0.094589, -0.452960, -0.471994, -0.193151, 0.220110, 0.126460, 0.246568, 0.263816, 0.162998, -0.381199, 0.211087, 0.521019, 0.348529, -0.131452, -0.271442, -0.262688, 0.198627, 0.034630, -0.277359, 0.195270, 0.065394, -0.265916, -0.054157, 0.203094, 0.054950, 0.213730, -0.024986, -0.437591, -0.190021, -0.121562, -0.206581, 0.032990, -0.061086, -0.376938, -0.169885, 0.124175, 0.127172, -0.031062, -0.107028, -0.219541, 0.065314, -0.373832, -0.256473, -0.173988, 0.024092, -0.019948, -0.278207, -0.087395, -0.087264, -0.073683, -0.190041, -0.462999, -0.494401, -0.431415, -0.303312, -0.224012, -0.329185, -0.133602, -0.094721, -0.017726, 0.025767, 0.077907, -0.066751, -0.037629, -0.113767, 0.105255, -0.510570, -0.107428, -0.252380, -0.387554, -0.357000, -0.242143, -0.093387, 0.038675, 0.131125, 0.279114, 0.382464, 0.343786, 0.168302, -0.008199, 0.114523, -0.305278, 0.008754, -0.284945, -0.224557, 0.018966, -0.153714, 0.050120, 0.402257, 0.183551, -0.228932, -0.206006, 0.194178, -0.008297, -0.027947, -0.092732, -0.179409, -0.379218, -0.184126, -0.338158, -0.862054, -0.731217, -1.218994, -1.088451, -0.407636, -0.536915, -0.213956, -0.286437, -0.624076, -0.459231, -0.511099, -0.483869, -0.975467, -0.907349, -0.366821, -0.064058, -0.290995, -0.577380, -0.576646, 0.214626, -0.651583, -0.640677, -1.160099, -0.342207, -0.008932, -0.415217, -0.922160, -0.146437, -0.763433, -0.011350, 0.448045, 0.384915, 0.029373, -0.552293, -0.580698, -1.471379, -0.644321, -0.398073, -0.425550, -0.642241, -0.313419, -0.477219, 0.129776, 0.120222, 0.278478, 0.104525, -0.843260, -0.846665, -1.307171, -1.261317, -0.497815, -0.268855, 0.023695, -0.349750, -0.725676, -0.016943, -0.004111, 0.085805, 0.091811, -0.674289, -0.683250, -1.413172, -0.971458, -0.120855, -0.161682, -0.197653, -1.101303, -0.847880, -0.510224, -0.181260, 0.004764, -0.463884, -0.116106, -1.279328, -1.260850, -0.458943, -0.110036, 0.211900, -0.189058, -1.635505, -0.097086, -0.013822, 0.521969, 0.101005, -0.345686, -0.227427, -0.658590, -0.519352, 0.005295, -0.184162, -0.079171, 0.056968, 0.071417, 0.172978, 0.402433, 0.351680, -0.184894, -0.233857, -0.408560, 0.396686, 0.240864, -0.035841, -0.080817, -0.122490, 0.096349, -0.118129, 0.103794, 0.474519, 0.573904, 0.300314, -0.340450, -0.492185, -0.312188, -0.097626, 0.326601, 0.295939, -0.133942, 0.026492, -0.109900, -0.282292, 0.110511, -0.003083, -0.106841, -0.439876, -0.092813, -0.515605, 0.416866, 0.433083, 0.266412, 0.375358, 0.061619, -0.384357, -0.678504, -0.562137, -0.066533, -0.184478, -0.662406, -0.363320, -0.560226, -0.302922, -0.053617, -0.048976, 0.198186, 0.114616, 0.013671, 0.077252, -0.016016, -0.116454, -0.160447, -0.064433, -0.272869, -0.831629, 0.108741, -0.113080, 0.086660, 0.003015, 0.034330, 0.125795, 0.050406, -0.047272, -0.216433, -0.097987, -0.360580},
  {-0.042021, -0.084939, -0.148025, -0.229811, -0.176459, -0.134751, -0.090596, -0.083272, -0.120390, -0.047926, 0.025418, -0.047392, -0.021296, -0.167136, 0.004787, -0.296815, -0.185658, -0.510755, -0.461090, -0.547615, -0.390354, 0.124256, 0.149039, 0.059060, 0.062292, -0.023937, 0.121750, -0.097743, -0.419264, -0.550948, -0.510127, -0.511691, -0.134263, -0.046997, -0.367680, -0.315564, 0.045114, 0.418508, -0.060132, -0.122056, -0.212626, -0.485459, -0.387862, -0.296584, -0.126187, 0.204947, 0.488153, 0.298511, 0.256108, 0.094889, 0.355582, 0.510382, -0.784348, -0.189045, -0.261973, -0.338179, -0.297202, 0.240919, 0.227122, 0.556558, 0.956900, 0.700634, 0.668769, 0.696676, 0.365357, -1.957339, -0.037047, 0.013027, -0.065956, -0.147478, 0.320237, 0.486829, 0.831285, 0.953142, 0.851468, 0.851344, 0.566303, 0.463522, -0.358358, -0.250786, 0.203909, 0.265537, 0.273621, 0.415526, 0.476089, 0.507013, 0.440896, 0.502444, 0.676529, 0.254604, 0.257940, -0.196902, 0.080712, 0.511826, 0.626905, 0.627699, 0.373878, 0.273621, 0.220702, 0.453881, 0.391709, 0.181088, 0.220143, -0.560984, -0.225539, 0.233696, 0.086925, 0.547931, 0.808491, 0.400226, 0.207357, -0.061589, 0.039602, -0.011167, 0.055555, -0.234500, -0.002529, 0.166195, 0.206397, 0.409124, 0.430126, 0.148116, 0.037943, 0.220785, -0.032302, -0.147781, -0.279431, -0.507514, -0.439861, -0.144091, -0.163558, 0.022010, 0.093902, 0.305931, 0.168139, -0.070270, -0.215968, -0.262994, -0.373813, -0.509111, -0.344960, -0.357174, -0.354179, 0.225640, 0.039141, -0.013454, 0.222402, 0.126500, 0.131480, 0.026830, -0.065965, -0.257773, -0.235450, -0.345115, 0.031726, 0.267441, -0.106776, 0.015464, 0.102321, 0.349956, 0.159622, 0.159311, 0.082561, 0.028898, -0.101703, -0.301003, -0.061619, -0.060795, -0.183662, 0.044028, 0.160498, -0.394553, -0.196388, 0.164205, -0.110351, 0.044913, 0.102231, 0.274468, 0.109447, -0.267550, -0.277553, 0.133256, 0.037771, 0.154049, -0.065039, 0.195608, 0.265982, -0.030141, -0.270170, 0.034251, -0.055489, -0.212790, -0.200978, 0.094449, 0.104420, -0.075672, -0.070563, 0.167582, 0.252920, 0.306031, 0.089822, -0.175243, -0.164250, -0.131328, -0.185912, -0.366617, 0.022250, 0.426527, -0.262794, -0.240252, 0.014981, 0.134906, 0.170614, 0.188476, -0.151063, -0.247173, -0.114249, -0.163968, -0.075325, 0.141280, 0.350022, -0.335018, -0.122169, 0.054650, 0.095083, 0.119178, 0.162126, -0.191333, -0.473510, -0.371906, -0.312002, -0.207882, 0.231434, 0.569651, -0.158985, -0.282743, -0.130246, -0.062329, 0.142593, 0.197821, -0.003023, -0.286839, -0.347830, -0.258184, -0.476358, -0.114350, 0.481052, -0.432579, -0.470591, -0.423558, -0.320199, 0.019250, 0.151934, 0.023415, -0.165002, -0.147691, -0.140605, -0.130846, -0.204295, -0.248934, -0.511908, -0.095450, -0.326344, -0.489270, -0.336011, -0.122253, -0.108982, -0.143065, -0.082918, -0.081776, 0.123468, -0.052470, -0.121658, 0.000356, -0.039660, 0.108281, -0.298780, -0.277471, -0.229612, -0.146270, -0.095842, -0.063341, 0.051674, 0.175033, 0.070047, -0.124073, 0.061097, 0.025137, 0.145661, -0.005969, -0.072227, -0.002410, 0.031510, -0.025897, 0.061619, 0.042445, 0.160154, 0.156760, 0.040107, 0.339424, 0.016480, 0.044066, 0.153470, 0.133140, 0.161927, 0.030523, 0.075177, 0.112387, 0.121655, 0.124712, 0.266579, 0.055957, 0.251788, 0.273799, -0.048773, 0.157885, 0.243652, 0.239374, 0.065402, 0.023177, 0.026763, -0.030585, -0.039677, 0.145652, 0.117416, -0.290657, -0.051149, -0.351378, -0.288174, 0.085267, 0.153807, 0.051010, -0.023955, -0.056490, -0.053090, 0.035145, 0.221928, 0.033052, -0.168438, 0.301063, -0.025203, -0.348646, -0.250671, -0.180635, -0.322321, 0.041774, 0.104936, 0.124964, 0.087429, -0.319982, -0.261962, -0.245560, 0.020067, -0.238262, 0.047733, 0.152839, 0.144413, 0.259564, 0.151556, 0.244278, -0.070047, -0.204480, 0.051494, 0.224844, 0.232436, 0.097857, 0.013549, 0.328340, 0.087539, -0.110035, -0.066532, -0.122036, 0.107061, -0.004952, 0.295618, 0.396400, 0.306370, -0.168619, -0.128599, 0.020739, 0.017280, -0.097370, -0.071129, -0.225967, -0.372665, -0.357727, -0.194375, 0.149395, 0.278017, 0.251823, -0.643463, 0.055250, 0.122424, -0.009465, -0.018656, 0.004729, -0.316132, -0.714732, -1.056104, -0.880911, -0.604945, 0.163430, 0.350406, -1.344990, -0.125023, -0.170518, -0.237789, -0.068088, 0.164784, -0.197901, -0.682572, -1.073460, -1.071733, -0.813503, -0.380752, 0.016247, -0.227527, -0.470419, -0.473887, -0.400161, 0.022095, 0.054051, -0.140014, -0.416947, -0.431812, -0.593635, -0.501731, -0.290890, 0.065703, -0.372544, -0.472945, -0.592136, -0.839047, -0.378347, -0.273777, -0.241927, -0.149772, -0.068824, -0.220087, -0.052130, 0.161757, -0.232765, -0.224311, -0.028529, -0.234038, -0.575418, -0.390295, -0.398330, -0.083098, -0.155692, -0.119121, 0.034113, 0.125493, 0.002727, -0.096214, 0.145386, 0.024076, -0.144679, -0.365635, -0.263447, -0.214760, -0.167447, -0.066978, -0.016439, 0.250714, 0.187319, 0.052467, -0.182230, -0.199869, 0.039935, 0.063307, 0.017312, 0.016894, 0.026935, 0.038347, 0.161095, 0.159420, 0.256784, 0.235930, 0.201081, -0.093644, 0.156305, 0.067863, -0.008149, 0.226430, 0.190081, 0.069312, 0.162066, 0.152950, 0.194991, 0.068108, 0.210633, 0.315842, -0.315240, -0.003931, -0.019480, -0.168684, -0.032043, -0.286800, 0.099236, -0.019112, 0.136976, 0.256161, 0.400418, 0.285343, -0.042435, -0.286464, -0.023424, -0.075821, -0.139253, -0.373870, -0.200632, -0.571793, -1.040519, -0.998222, -0.748273, -0.220987, -0.026051, 0.118679, -0.220902, -0.364438, -0.189400, 0.316560, -0.435062, 0.088011, 0.104391, 0.128104, 0.497173, 0.483916, 0.640943, 0.237241, 0.004702, -0.150716, -0.149399, 0.069089, -0.710333, -0.877670, -0.279923, 0.461988, 0.642913, 0.867704, 1.051676, 1.029889, 1.071279, 0.424340, 0.283578, 0.101440, -0.289830, -1.188500, -1.239879, -0.816666, -0.231177, 0.363253, 0.597948, 0.888192, 1.170369, 1.244523, 0.463826, 0.426334, -0.983331, -0.993755, -1.198321, -1.374187, -0.738173, -0.460996, -0.313782, -0.371064, 0.136395, 0.513008, 0.580929, 0.794023, 0.909278, -1.349713, -1.499512, -0.533231, -0.822495, -0.212642, -0.481751, -0.258738, -0.088809, -0.274247, -0.469072, -0.315427, 0.268621, 0.931090, -0.183218, -0.428650, 0.117426, 0.065910, -0.297561, -0.257464, 0.049995, 0.223072, -0.661519, -0.957370, -0.975753, -0.784963, -0.067931, -0.039024, -0.424178, 0.437352, 0.094645, -0.146046, 0.024973, 0.180980, -0.132870, -0.607345, -1.282620, -1.216724, -0.735116, -0.005214, -0.250482, -0.444256, 0.611880, -0.084913, 0.153408, -0.009836, -0.057984, -0.086486, -0.204145, -0.715830, -0.438505, -0.576110, -0.305869, -0.105838, 0.167757, 0.894886, 0.564540, 0.746078, 0.463220, 0.419893, 0.154734, -0.094829, -0.296314, -0.440061, -0.524612, -0.470129, -0.288708, 0.030961, 0.413840, 0.321640, 0.185807, 0.229580, 0.424914, 0.250050, 0.208589, 0.256030, 0.039964, 0.067648, -0.365481, -0.197139, 0.316633, -0.255647, -0.209714, -0.032563, 0.127990, 0.069115, -0.010033, 0.045203, -0.058068, -0.073772, -0.280364, 0.041593, -0.470602, -0.022683, -0.111918, -0.102325, -0.099917, -0.075470, 0.078486, 0.061780, 0.015956, -0.059475, 0.032901, 0.140455, 0.070878},
  {0.018231, 0.044241, 0.059158, 0.137224, 0.145301, 0.035394, -0.027137, -0.216669, 0.317737, 0.190905, 0.386113, 0.077378, 0.003505, -0.018002, -0.174574, 0.064311, -0.324956, -0.182122, -0.591117, -0.511708, -0.537753, -0.164799, 0.250096, 0.395744, -0.098645, -0.016241, -0.740567, -0.196303, -0.019799, -0.443499, -0.864845, -1.050559, -0.677854, -0.422908, -0.084875, -0.045745, -0.032287, -0.160125, 0.116943, -0.296397, -0.359370, -0.331008, -0.684228, -1.311266, -0.897211, -0.951666, -0.481001, -0.039439, 0.177923, 0.172689, 0.071731, -0.166461, -0.289735, -0.319972, -0.580381, -0.926251, -1.280416, -1.067068, -0.922637, -0.442746, -0.159332, 0.595033, 0.457733, -0.167547, -0.412732, -0.642533, -0.495603, -0.469005, -0.783918, -1.098101, -1.263786, -0.712225, -0.252147, 0.407977, 0.798254, 0.595333, -0.140293, -0.263731, -0.608454, -0.250013, -0.386133, -0.701285, -0.992591, -1.013218, -0.292153, 0.360498, 0.537195, 0.412746, 0.602151, -0.038809, -0.779675, -0.795807, -0.344611, -0.327676, -0.662526, -0.644874, -0.665475, -0.163009, 0.252094, 0.256401, -0.062714, 0.179679, -0.153244, -0.410079, -0.476375, -0.275577, -0.039787, -0.283189, -0.321704, -0.171947, -0.000603, 0.264170, 0.365026, 0.112296, -0.217794, -0.366759, -0.442134, -0.188872, -0.133233, -0.063797, -0.130565, 0.121726, 0.378807, 0.257732, 0.305527, 0.167506, 0.026957, -0.082790, 0.095290, -0.137841, -0.444606, -0.054706, 0.022345, -0.061047, 0.311679, 0.334345, 0.385125, 0.338723, 0.261873, -0.130600, -0.038877, 0.026563, -0.022785, -0.115069, -1.066782, -0.689318, -0.052616, 0.316171, 0.367672, 0.149618, 0.037152, 0.036169, -0.034339, -0.472098, -0.670143, -0.089243, -0.252129, -0.370465, -0.520386, -0.597738, -0.681095, -0.159863, -0.121691, 0.016369, 0.164036, -0.298630, -0.664351, -0.374088, -0.168425, 0.055546, 0.012982, 0.452416, 0.585963, 0.589007, 0.608943, 0.496107, 0.200688, 0.186888, 0.522135, 0.620660, 0.306485, -0.097658, -0.369820, 0.314812, 0.478678, 0.471463, 0.320815, -0.114762, 0.089859, -0.016074, 0.120288, 0.227104, 0.211159, 0.255973, 0.060729, -0.234153, 0.096652, 0.180357, 0.194274, -0.053658, -0.189254, -0.337029, -0.372859, -0.349791, -0.068212, -0.129358, -0.037234, 0.070356, -0.234252, -0.028163, 0.020220, 0.111120, -0.223972, -0.356550, -0.451507, -0.743630, -0.841442, -0.434652, -0.331010, -0.475106, -0.143509, -0.582086, -0.198430, 0.051695, 0.101408, 0.018371, -0.179344, -0.469286, -0.790025, -0.836604, -0.498211, -0.198118, -0.317243, -0.493657, -0.728756, -0.325642, 0.141696, 0.242288, 0.232530, -0.007519, -0.302026, -0.367565, -0.385834, -0.103267, 0.335586, 0.539905, -0.242265, -0.638181, -0.292301, 0.145759, 0.131368, 0.281204, 0.258633, 0.087391, 0.161134, 0.112063, 0.010755, 0.291993, 0.520599, 0.090156, -0.341613, -0.311916, 0.079724, 0.127398, 0.248996, 0.252439, 0.284510, 0.309536, 0.185419, 0.126953, 0.054883, 0.181369, 0.241661, -0.144702, -0.240768, 0.060788, 0.177445, 0.154712, 0.174958, 0.052104, 0.156638, 0.114979, 0.140398, -0.045857, 0.009254, 0.022907, -0.315381, -0.111440, -0.014997, 0.074387, 0.179265, 0.213824, -0.033568, -0.007167, 0.067741, 0.084801, -0.063630, -0.174647, -0.046178, -0.161110, -0.239689, -0.316844, -0.001954, 0.142077, 0.158671, 0.179945, 0.114539, 0.020532, -0.021238, -0.102590, -0.198477, -0.053456, -0.126845, -0.234951, -0.481802, -0.361906, -0.268870, -0.209059, -0.140181, -0.089717, -0.027704, 0.032734, -0.116422, -0.471422, -0.339580, -0.015672, -0.088057, -0.153853, -0.287662, -0.298560, -0.237287, -0.251500, -0.284986, -0.099564, -0.100529, -0.275534, -0.364075, -0.103855, -0.198120, -0.094143, 0.306857, 0.286095, 0.601431, 0.606064, 0.372567, 0.453551, 0.427143, 0.511436, 0.470639, 0.409909, 0.094730, -0.128661, -0.168159, 0.404757, 0.595197, 0.512906, 0.284342, 0.099961, 0.048714, 0.079776, 0.374948, 0.357583, 0.084658, 0.066396, -0.528277, 0.249299, 0.142844, 0.261912, -0.028428, 0.009637, -0.028228, 0.060303, -0.135533, 0.004234, -0.349061, -0.342681, -0.131375, -0.231200, 0.087961, 0.039345, 0.235055, -0.001118, -0.102488, -0.156760, -0.234518, -0.421824, -0.446712, -0.728978, -0.480513, -0.350937, -0.382766, -0.223934, 0.107259, 0.090390, 0.034460, -0.091290, 0.118813, -0.385815, -0.457091, -0.365784, -0.478317, -0.094852, -0.081261, -0.504719, -0.282171, 0.218576, 0.171626, 0.137235, 0.222357, -0.117888, -0.206988, -0.165332, -0.184803, -0.189310, 0.182431, 0.026621, -0.734982, -0.223285, 0.284533, 0.232275, 0.125712, 0.056697, 0.049766, 0.399991, 0.032246, 0.106772, 0.238595, 0.418171, -0.191794, -0.652260, -0.063788, 0.202554, 0.302224, 0.364155, 0.102790, 0.382127, 0.436001, 0.054740, 0.063947, 0.311879, 0.036969, -0.268477, -0.341311, -0.047770, 0.009759, 0.243050, 0.244388, 0.256193, 0.118104, 0.040730, 0.229355, 0.193882, 0.252167, 0.011899, -0.339631, -0.192243, -0.154144, -0.007571, -0.076023, 0.221124, 0.150154, -0.112876, 0.090647, 0.202423, 0.166832, -0.071460, 0.045752, -0.148826, -0.310129, -0.189665, -0.116042, -0.073648, 0.111126, 0.049898, -0.002656, 0.175451, 0.318132, 0.464833, -0.125914, -0.054063, 0.023545, -0.080742, -0.751879, -0.470262, -0.275913, -0.333917, -0.242914, -0.492716, -0.327095, -0.326413, -0.187186, -0.442426, -0.319129, 0.167128, -0.182554, -0.237207, -0.265877, -0.334983, -0.350040, -0.176840, -0.608388, -0.293237, -0.654410, -0.597464, -0.508283, -0.130359, -0.020369, 0.024695, 0.078461, 0.024487, -0.215307, -0.142333, -0.112948, 0.051068, 0.536957, 0.745042, 0.794836, 0.280164, 0.354693, 0.483078, -0.367123, -0.004132, -0.530116, -0.347324, -0.108712, -0.000702, 0.010127, 0.591903, 0.294417, 0.191265, 0.452373, 0.117303, -0.210650, 0.057643, -0.515904, -0.261182, -0.203350, 0.056297, -0.317705, 0.303112, 0.477310, 0.602408, 0.421048, 0.105571, 0.038756, -0.151828, -0.092516, -0.081832, -0.260065, -0.018575, 0.020317, 0.286989, 0.171056, 0.795164, 0.739632, 0.700174, 0.476386, 0.399976, -0.262235, -0.137854, -0.047237, -0.678730, -0.200410, 0.057589, 0.214091, 0.424192, 0.926996, 0.554343, 0.326907, 0.373511, -0.363985, -1.046534, -0.549649, -0.526672, -0.996246, -0.288104, -0.119613, -0.695817, 0.188806, 0.744359, 0.024069, -0.084362, -0.241978, -1.161287, -0.573609, -0.502093, -1.125491, -1.202772, -0.458107, -0.632511, -0.527146, 0.301475, 0.170426, -0.530259, -0.776347, -0.546480, -0.129172, -0.067841, -0.712526, -1.112183, -1.408536, -1.031339, -1.170235, -0.415741, 0.176058, -0.162168, -0.308295, 0.082228, 0.391323, 0.225249, -0.150430, -0.574355, -0.150828, -0.626402, -0.578898, -1.260460, -0.699571, -0.486054, 0.037924, 0.322561, 0.306905, -0.133555, 0.125972, 0.039315, -0.164885, -0.153318, -0.425202, -0.306772, -1.000062, -0.820510, -0.365044, 0.311381, 0.397055, 0.057226, -0.107549, 0.230104, 0.002760, -0.222045, 0.012761, -0.446918, -0.187001, -0.165730, -0.172388, 0.110191, 0.190884, 0.326687, 0.233429, 0.116864, -0.177660, -0.165112, -0.552023, -1.961823, -1.150026, -0.242459, -0.013333, -0.370955, -0.266245, -0.063415, 0.080998, 0.247202, -0.085519, -0.583319, -0.527513, -0.021044, -0.897705, -0.783153, -1.306370, -1.315574, -0.891669, -0.656204, -0.227048, -0.049452, -0.552376, -0.908511, -0.751768, -0.319971},
  {-0.033692, -0.067005, -0.066327, -0.129110, -0.152808, -0.117651, -0.107766, -0.119187, -0.145217, -0.047700, -0.085909, -0.079980, -0.032172, -0.277126, -0.277027, -0.051184, -0.130845, -0.269277, -0.216479, -0.164159, -0.127105, -0.196010, -0.099503, -0.132239, -0.140447, -0.035784, -0.137027, 0.708297, 0.674115, 0.709224, 0.747706, 0.679935, 0.340432, 0.133004, -0.002084, -0.030220, -0.112862, -0.209953, -0.218026, 0.392739, 0.459342, 0.631071, 0.595478, 0.976816, 0.683445, 0.389243, 0.166008, -0.002624, -0.388951, -0.374110, -0.318789, -0.441702, 0.254865, 0.501097, 0.405032, 0.687578, 0.569898, 0.517348, 0.349210, 0.178613, -0.082458, -0.427852, -0.922119, -0.484945, -0.202741, 0.144868, 0.376031, 0.131920, 0.180581, 0.255406, 0.080879, 0.046542, -0.132018, -0.200965, -0.114640, -0.220116, -0.313132, -0.277047, 0.199522, 0.293340, -0.235632, -0.089426, 0.050094, -0.685428, -0.713582, 0.073648, 0.005858, -0.050480, -0.030928, 0.039901, 0.531145, 0.294846, -0.210150, -0.609857, -0.562757, -0.124700, -0.952536, -1.036097, -0.052967, 0.150337, 0.173974, -0.118646, -0.110711, -0.261449, -0.296220, -0.400689, -0.328435, 0.034897, -0.093212, -0.620361, -0.351965, -0.485679, -0.036233, 0.029993, -0.270326, -0.126547, -0.479206, -0.322654, 0.039410, -0.242381, -0.056022, -0.288154, -0.766144, -0.640563, -0.344403, 0.072043, 0.081965, -0.330529, -0.093099, 0.298926, -1.064112, -0.158885, -0.504914, -0.538285, -1.210760, -0.957876, -0.643071, -0.331249, -0.240404, -0.154701, 0.117016, -0.108386, -0.381643, -1.070044, -0.188334, -0.326054, -0.812642, -0.620025, -0.366245, -0.029215, 0.308380, -0.233148, -0.375027, -0.437860, -0.689397, 0.029258, 0.020827, 0.265810, 0.054353, -0.222115, -0.229441, -0.241906, -0.126449, 0.012249, -0.225541, -0.331695, -0.509520, -0.618688, -0.247335, -0.239465, -0.265075, -0.134030, -0.358679, -0.630235, -0.498182, -0.253826, -0.233114, -0.219974, -0.167970, -0.096911, -0.103970, -0.130606, -1.037594, -0.015480, 0.106100, 0.129736, -0.424914, -0.251208, -0.249973, -0.147829, -0.633873, -0.923713, -0.210645, -0.291481, -0.128231, 0.134211, -0.175475, 0.171827, 0.003645, 0.000343, -0.005465, -0.259011, -0.085527, -0.012255, -0.418262, -0.448571, -0.679082, -0.627578, 0.046128, 0.199345, 0.283664, 0.274952, 0.314830, 0.193286, 0.106687, 0.226899, 0.290652, 0.093025, 0.041100, -0.171645, -0.408958, 0.103604, 0.316599, 0.119428, 0.194922, 0.266157, 0.452157, 0.612411, 0.598095, 0.464633, 0.263652, 0.171196, -0.161040, -0.426141, 0.204249, 0.213324, 0.201019, 0.058462, 0.002083, -0.193968, 0.152933, 0.569195, 0.296871, 0.001684, 0.137414, -0.246388, -0.440242, 0.064834, 0.040916, -0.059674, -0.124919, -0.125333, -0.550126, -0.512477, 0.239423, 0.221062, -0.015469, 0.089085, -0.141082, -0.319498, -0.097764, -0.160744, -0.081585, -0.027417, -0.230461, -0.369264, -0.338747, 0.151752, 0.253362, 0.200572, 0.012516, -0.121502, -0.686235, -0.329059, -0.043242, -0.207300, -0.031854, -0.186523, -0.149867, 0.022050, 0.191186, 0.255131, 0.270142, -0.142037, -0.392728, -0.534277, -0.094754, -0.175516, -0.390131, -0.158013, -0.156527, -0.032989, 0.094493, 0.008242, 0.133256, 0.185763, -0.092260, -0.581035, -0.324756, -0.842737, -0.097406, -0.123255, -0.292169, -0.176794, -0.078855, -0.000921, -0.020716, -0.022214, -0.040854, -0.162386, -0.559647, 0.368520, -0.035675, 0.205951, -0.174846, -0.212624, -0.116117, -0.094393, 0.019145, 0.034742, 0.007976, -0.095529, -0.110280, -0.632674, -0.274559, -0.113032, -0.200904, -0.045901, 0.191548, 0.041476, 0.060318, 0.113889, 0.133751, 0.092287, 0.141210, 0.219620, -0.140368, -0.354358, 0.004414, -0.179861, -0.088133, -0.175033, -0.503753, -0.486819, -0.414441, -0.283968, -0.287989, -0.194855, -0.163679, -0.111582, -0.065610, -0.259279, -0.479804, -0.788909, -0.826148, -0.924473, -0.651185, -0.542868, -0.445891, -0.368401, -0.416741, -0.323954, -0.399242, -0.263747, -0.043271, 0.228712, -0.140936, -0.212050, -0.249559, -0.007833, -0.205331, -0.149026, -0.158486, -0.260746, -0.353384, -0.354436, -0.640588, 0.260509, -0.071662, 0.187948, 0.043332, -0.016942, -0.029293, -0.120824, 0.122552, 0.275173, 0.098890, 0.371648, 0.271234, -0.269134, 0.059944, 0.096441, 0.125352, -0.222376, -0.292756, -0.316823, -0.237497, 0.171939, 0.311102, 0.127076, 0.131216, 0.166222, -0.461033, 0.148891, 0.267957, -0.159695, -0.242689, -0.429134, -0.779817, -0.448956, 0.080157, 0.236966, -0.043047, -0.015865, -0.439634, -0.037308, 0.042573, 0.160930, -0.060174, -0.253266, -0.358172, -0.743439, -0.123012, 0.359268, 0.122183, 0.214428, 0.334244, 0.120758, 0.137717, 0.027685, -0.028852, -0.024922, -0.029055, 0.235970, -0.329738, 0.000527, 0.213254, 0.453069, 0.188659, 0.036043, -0.345493, -0.605074, -0.335871, -0.063686, 0.097223, 0.240643, 0.345626, -0.012536, 0.096025, 0.400602, 0.073414, 0.238096, 0.089203, -0.097423, 0.058859, -0.344315, 0.139397, -0.197677, 0.227939, 0.074757, 0.015921, 0.190231, 0.075723, 0.027825, 0.055970, -0.561200, -0.360316, 0.245776, -0.914025, -0.034513, -0.168603, 0.084401, 0.159381, 0.251679, 0.114625, 0.110710, -0.086920, -0.313883, -0.547681, -0.217178, -0.052325, -0.817077, 0.167997, 0.178438, 0.143678, 0.062536, 0.026656, 0.106996, 0.180767, -0.137077, -0.588904, -0.287984, -0.514222, -0.292821, 0.018896, 0.177634, -0.020314, 0.231761, 0.159599, 0.362812, 0.585719, 0.829191, 0.434820, 0.337852, 0.142989, 0.289724, -0.056033, 0.036520, -0.044776, -0.070317, -0.033640, -0.256818, -0.456009, -0.539791, -0.674976, -1.078531, -0.318744, -0.502393, -0.348005, 0.009724, -0.203745, -0.297472, -0.541658, -0.478968, -0.815644, -0.756819, -0.706666, -0.893763, -0.605693, -1.116476, -0.629776, -0.618721, -0.236741, -0.091992, -0.433837, -0.479378, -0.045346, 0.280646, -0.335831, 0.360489, -0.262762, -0.513881, -0.179939, -2.016007, -1.107042, -0.919040, 0.268135, -0.275929, -0.558626, -0.297417, -0.400799, -0.246744, 0.103205, -0.381539, -0.559313, -0.424363, -0.418649, -0.468564, -0.994149, 1.043390, -0.059744, -0.463639, -0.430923, -0.324953, -0.190870, -0.025341, -0.348231, -0.324619, 0.017222, -0.202538, 0.110815, -0.158605, 0.105592, -0.062702, 0.039888, 0.007703, 0.426466, 0.318920, 0.085657, 0.015089, 0.468408, 0.207017, -0.028480, 0.133558, -0.649056, 0.051496, 0.962474, 0.378790, 0.532570, 0.984125, 0.857973, -0.338542, 0.351051, -0.057501, -0.043175, -0.270885, -0.685286, -0.078278, 0.274294, 0.998373, 1.028381, 0.987610, 1.508945, 0.343585, -1.270187, -0.185095, 0.403451, 0.626845, -0.004881, 0.028971, -0.469041, 0.041916, -0.116150, 0.495336, 0.796450, 0.741283, -0.457862, -0.558059, -0.136979, 0.437573, 0.735334, 0.556849, -0.048969, -0.467063, 0.795726, 0.529298, 0.333396, 0.074882, 0.256234, -0.021308, -0.268422, -0.196702, -0.322360, 0.306541, 0.348181, -0.479553, -0.309039, -0.330713, -0.541144, -0.269059, -0.318779, 0.292695, 0.012545, -0.090940, -0.755740, -0.875506, -0.609143, -0.491708, -0.784885, 0.147707, -0.939257, -0.842427, -0.017423, 0.098321, -0.159516, -0.197928, -0.265373, -0.461474, -0.709677, -0.785004, -0.555497, -1.052586, -0.426175, 0.189101, 0.574982, 0.094801, 0.193908, 0.049384, 0.047769, 0.046756, 0.013039, -0.346790, -0.213795, -0.191709, -0.384337, -0.447254},
  {-0.013968, -0.093353, -0.042323, -0.141499, -0.119600, -0.067837, -0.076982, -0.103164, -0.140166, -0.084770, -0.130632, -0.066930, 0.000221, -0.562601, -0.133484, -0.258580, -0.262112, -0.082110, 0.040630, 0.119129, 0.012403, -0.006048, -0.104958, -0.105375, 0.038899, 0.123946, -0.402350, -0.562373, -0.446167, -0.503238, -0.210950, -0.070011, -0.032037, -0.135133, 0.179791, 0.453371, 0.367593, 0.021548, 0.044598, -0.654352, -0.513929, -0.317878, 0.018185, -0.351099, -0.135859, 0.049720, 0.234111, 0.196312, 0.237432, 0.184813, 0.144479, -0.290730, 0.211701, -0.179093, -0.011123, 0.066254, 0.148047, 0.431073, 0.337049, 0.032917, 0.003085, 0.170903, 0.029411, -0.107687, 0.069292, 0.032460, 0.141545, 0.266619, 0.516142, 0.356281, 0.512329, 0.285457, -0.420592, -0.376467, -0.259815, -0.033038, -0.198852, -0.244250, -0.041236, 0.127490, 0.409183, 0.448193, 0.316521, 0.082058, -0.243623, -0.117592, 0.135592, -0.050547, -0.063226, -0.329943, -0.414832, -0.280402, -0.016885, -0.058354, -0.162370, -0.296800, -0.305376, -0.380021, 0.135085, 0.401762, 0.344836, 0.205308, -0.228796, -0.828539, -0.329184, -0.410743, -0.415592, -0.808419, -0.755974, -0.545687, -0.165753, 0.674430, 0.376822, 0.660849, 0.035185, -0.853981, -0.505256, -0.577989, -0.212147, -0.479529, -0.578328, -0.711677, -0.189837, 0.353405, 0.461617, 0.127080, -0.530789, -0.336285, -0.187322, -0.438921, -0.538816, -0.305557, 0.058839, -0.216494, 0.077024, 0.242277, 0.281700, -0.216931, -0.316664, -0.209062, -0.357324, -0.497356, -0.620001, -0.475949, 0.077541, 0.143578, 0.043973, 0.125237, 0.108704, -0.016635, -0.170820, -0.034247, 0.193775, 0.087602, -0.324964, -0.597567, -0.635323, -0.382804, -0.132841, 0.021717, 0.109394, 0.134364, 0.158473, -0.037980, -0.336206, 0.121917, -0.163672, -0.218144, -0.444168, -0.414116, -0.108751, -0.258805, -0.301116, -0.593466, -0.561882, -0.636372, -0.481181, -0.526821, -0.418113, 0.101624, -0.051547, -0.643501, -0.583926, -0.819670, -0.283805, -0.313103, -0.413926, 0.012460, -0.055061, 0.010020, -0.175178, -0.244356, -0.427625, -0.307816, 0.133989, -0.229749, -0.026489, -0.237828, -0.088413, -0.175932, 0.051062, 0.085216, 0.112573, 0.149188, 0.089445, -0.057323, -0.145877, -0.164215, 0.077245, 0.023575, 0.074085, 0.146130, 0.111579, 0.120036, -0.071372, -0.045440, 0.008518, 0.152036, 0.088800, 0.137012, -0.263503, 0.000458, 0.097475, 0.161682, 0.232079, 0.186561, 0.182534, 0.113512, -0.196711, -0.096728, 0.088997, 0.213700, 0.266922, -0.095610, 0.008295, -0.042452, 0.175063, 0.188483, 0.083271, 0.248024, 0.133867, -0.075851, -0.185662, 0.015259, -0.056759, 0.301230, 0.125968, -0.482167, -0.223809, 0.073742, 0.155877, 0.142336, 0.136033, 0.067258, -0.175195, -0.144394, -0.181585, -0.125651, 0.001903, 0.198981, -0.306727, -0.380416, 0.284469, 0.258323, 0.227991, 0.192488, 0.058116, -0.068216, -0.190881, -0.081370, -0.132439, -0.038560, -0.084014, -0.418300, -0.062346, -0.043425, 0.166101, 0.251275, 0.213528, -0.075120, 0.047274, 0.096975, -0.057575, -0.023258, 0.093228, -0.325218, -0.354182, -0.130926, 0.076389, -0.013648, 0.034412, -0.215284, -0.255983, -0.131182, 0.042189, 0.093308, 0.033451, 0.018301, -0.435505, -0.323750, 0.084964, 0.123358, -0.041399, -0.071397, -0.128846, -0.175361, -0.170895, -0.028273, 0.032158, 0.038479, 0.015358, -0.997790, -0.393708, -0.172788, 0.093585, 0.031644, -0.037887, -0.002972, 0.072070, 0.070334, -0.074435, 0.088286, 0.086490, 0.003827, -0.396770, -0.120260, -0.468364, -0.048826, -0.169952, -0.164281, -0.109295, -0.026852, 0.046691, -0.030443, -0.072331, -0.349221, -0.378252, -0.584388, -0.299092, -0.053649, -0.094395, -0.323184, -0.994027, -0.610944, -0.378234, -0.548915, -0.467247, -0.390825, -0.519268, -0.023695, -0.033378, -0.482323, -0.413050, -0.192176, -0.046152, -0.250729, -0.199831, -0.163832, -0.115027, -0.241368, -0.458581, -0.383536, -0.400252, -0.006964, -0.699564, -0.607310, -0.205774, -0.128572, -0.118638, 0.043996, 0.094181, 0.067900, -0.020151, 0.075136, -0.097981, 0.125881, -0.000240, -0.285346, 0.071625, 0.149307, 0.110085, 0.127186, 0.113920, 0.176781, -0.017869, -0.039995, -0.000636, -0.097326, 0.206521, 0.070319, 0.152805, 0.021591, 0.088943, 0.263561, 0.212102, 0.233293, 0.035849, 0.139104, 0.364662, 0.231366, 0.273952, 0.315059, 0.079432, 0.170197, 0.080355, 0.182440, 0.154823, -0.171616, -0.004526, -0.081457, 0.273405, 0.404442, 0.361825, 0.580976, 0.304214, -0.081879, 0.091650, -0.253214, 0.072538, -0.172342, -0.098458, 0.158160, -0.020162, 0.046717, 0.112549, -0.082346, 0.091989, -0.221285, -0.352022, -0.155561, -0.037171, 0.296482, 0.422765, 0.352348, 0.240196, 0.096540, -0.139067, -0.044646, -0.501894, -0.393455, -0.041352, -0.236795, -0.170775, -0.229586, 0.356717, 0.450239, 0.549160, 0.411849, -0.030682, -0.174006, -0.187494, -0.025400, -0.063949, 0.211417, -0.354063, -0.377715, 0.048959, 0.217225, 0.387042, 0.360840, 0.340138, 0.027534, 0.092038, 0.128236, -0.110827, 0.148725, 0.239103, -0.449619, -0.425681, 0.012542, -0.005087, 0.021341, 0.045961, 0.213353, 0.411150, 0.392626, 0.233206, 0.044987, 0.288754, -0.157685, -0.335884, -0.372542, -0.012774, -0.159959, -0.334032, -0.214262, 0.045271, 0.188559, 0.341824, 0.227844, 0.297295, -0.074507, -0.346399, -0.432881, -0.413208, -0.394409, -0.253489, -0.541109, -0.592392, -0.404380, -0.341939, -0.511131, -0.522300, -0.410527, -1.122894, -1.038254, -0.237180, -0.013907, -0.028701, -0.136460, -0.086720, -0.263115, -0.890970, -1.161978, -1.279704, -0.656296, -0.989719, -0.665634, -0.754217, -0.408616, -0.156456, -0.431239, -0.375924, -0.603736, -0.383151, -0.161712, -0.306842, -0.368281, -0.245749, -0.155929, -0.296970, -0.141318, -0.423962, -0.312720, -0.717109, -1.134873, -0.435229, 0.155617, 0.133368, -0.026758, -0.045559, -0.205399, -0.114387, 0.152966, 0.010424, 0.128514, -0.999516, -0.401889, -1.168717, -0.044086, 0.042046, 0.044680, -0.027189, -0.227013, -0.409250, -0.142525, -0.173104, -0.110577, -0.158650, -0.809701, -0.810172, -1.015708, -0.274483, -0.578610, -0.654264, -0.432788, -0.030791, 0.361091, 0.240914, 0.015406, 0.083639, -0.023165, -1.040086, -0.599716, -1.258995, -1.116237, -1.248977, -0.923024, -1.059307, -0.141331, 0.467568, 0.762752, 0.633877, 0.422803, -0.076689, -1.092952, -0.474747, -0.545895, -1.051418, -1.386773, -0.964071, -0.713871, 0.019217, 0.476335, 0.465617, 0.647822, 0.599594, 0.219023, -0.628855, -0.647074, -0.675483, 0.004957, -0.390972, -0.141156, -0.300086, -0.523148, 0.151793, -0.024052, -0.065949, -0.404092, -0.552963, -0.491289, -0.269018, -0.277346, 0.459221, 0.378567, 0.199315, -0.312760, -0.719760, -0.438196, -0.669405, -1.046883, -0.575048, -0.178073, -0.905062, -1.370611, -1.345674, -0.345289, 0.025661, -0.370753, -0.905642, -0.564156, -0.186600, -0.462731, -0.216501, 0.095868, -0.104354, -1.050736, -1.144965, -0.893609, -0.726108, -0.611268, -0.532237, -0.185760, 0.260542, -0.066628, -0.091741, -0.046188, -0.219596, -1.132746, -0.742219, -0.710001, -0.214650, -0.226381, -0.331095, -0.183919, -0.016374, 0.121052, -0.034310, 0.170342, 0.239928, 0.188938, -0.434158, -0.736654, -0.579561, -0.192760, -0.455217, -0.207886, -0.177744, -0.048848, -0.079260, 0.024528, 0.109898, -0.035671, -0.306943, -0.760699},
  {-0.033598, -0.046914, -0.044392, -0.138050, -0.192449, -0.240950, -0.317206, -0.418771, -0.689792, -0.076956, -0.131144, -0.054757, 0.017672, -0.438909, -0.320035, -0.291100, -0.111421, -0.209423, -0.323112, -0.383245, -0.271501, 0.001011, -0.240159, -0.164087, -0.168497, -0.111995, -0.144377, -0.146091, -0.474660, -0.658255, -0.926315, -0.596421, 0.146245, 0.425951, 0.571976, -0.162816, -0.330395, -0.350584, -0.182636, -0.853190, -0.816246, -1.126901, -0.908766, -0.531227, -0.036831, 0.390080, 0.608838, 0.510233, 0.347752, 0.595345, -0.093188, -0.561552, -0.519183, -0.396233, -0.529769, -0.742132, -0.455559, -0.177817, 0.289660, 0.162944, 0.245354, 0.143699, 0.453304, 0.142074, -0.540836, -0.268072, -0.169605, -0.142413, -0.104494, 0.074600, 0.083045, 0.172900, -0.122414, 0.396171, -0.103238, -0.271323, 0.180593, -0.358904, -0.101869, 0.182352, 0.055454, 0.027067, 0.246290, 0.613742, 0.498233, -0.065805, -0.545416, -0.650659, -0.535191, -0.332370, -0.884104, -0.210141, 0.303787, 0.278687, 0.228392, 0.382037, 0.563734, 0.061088, -0.011861, -0.621617, -0.940560, -0.774074, -0.686694, -0.645997, -0.559287, 0.058943, 0.141812, 0.376805, 0.548761, 0.375633, -0.140085, -0.473376, -0.749967, -1.240924, -0.403994, -0.512634, -0.513789, -0.401040, -0.309574, -0.001267, 0.480132, 0.629879, 0.134380, -0.240159, -0.612681, -0.706315, -0.682668, -0.374828, -0.069312, 0.003826, -0.472333, 0.234449, 0.213561, 0.306907, 0.238002, -0.153703, -0.480829, -0.602303, -0.349416, -0.068969, -0.271127, 0.578519, 0.464992, -0.039700, -0.102600, -0.197966, -0.084453, -0.145545, -0.307394, -0.159826, 0.175769, 0.211372, -0.010761, 0.232593, 0.304476, -0.390133, -0.734160, 0.202443, 0.009197, -0.160122, -0.070020, -0.125789, -0.081037, -0.131984, 0.010584, 0.223375, 0.034287, 0.117052, -0.259784, -0.426156, -0.323333, -0.082711, -0.219088, -0.775349, -0.728306, -0.720845, -0.691051, -0.506170, -0.593320, -0.173330, -0.118707, -0.106508, -0.808332, -0.279596, -0.630908, -0.417750, 0.366052, 0.098145, -0.675061, -0.874608, -0.297122, -0.207259, -0.636041, -0.408095, -0.183354, -0.947584, -0.831763, -0.528185, -0.404558, -0.251914, -0.005356, 0.180333, 0.029674, -0.128482, -0.003525, -0.029513, -0.478515, -1.053697, -0.402265, -0.463206, -0.318714, -0.167799, -0.068642, 0.214927, 0.489068, 0.372929, 0.144218, 0.059007, 0.065019, -0.250931, -0.508940, -0.304821, -0.125636, 0.119219, 0.176324, 0.248322, 0.268529, 0.333288, 0.234708, 0.244990, 0.155411, 0.006078, -0.278515, -0.324936, 0.126771, 0.361051, 0.213509, 0.196464, 0.189414, 0.108849, 0.185433, 0.290374, 0.359433, 0.499325, 0.427529, 0.030676, -0.445058, 0.140826, 0.418260, 0.270286, 0.065573, -0.116325, -0.206972, 0.102547, 0.222923, 0.269099, 0.358902, 0.386697, -0.202384, -0.876491, -0.313346, 0.231879, 0.015697, -0.053741, -0.050447, -0.342498, -0.199941, 0.061471, 0.026525, 0.022051, 0.142570, -0.426353, -0.768552, -0.305153, -0.147377, -0.017853, -0.139351, -0.203877, -0.427711, -0.271603, -0.197551, -0.083991, -0.018561, -0.122783, -0.186664, -0.303278, -0.509285, 0.039768, -0.182691, -0.228758, -0.228824, -0.357086, -0.340812, -0.230131, -0.248247, -0.098989, -0.086310, -0.128329, -0.035105, -0.204712, -0.094782, -0.018890, 0.106591, 0.062719, 0.035198, -0.008428, -0.154382, -0.165585, -0.094539, 0.015662, 0.027397, -0.005416, -0.709136, 0.183566, -0.071401, -0.038123, -0.007310, -0.026093, 0.019031, 0.008140, -0.025721, 0.034332, 0.075645, 0.119338, 0.063647, 0.029170, 0.414788, 0.374589, 0.246569, 0.252782, 0.216659, 0.334760, 0.265398, 0.248508, 0.323235, 0.226668, 0.120388, -0.019214, -0.042040, -0.279150, -0.121708, -0.162202, -0.330541, -0.715276, -0.541824, -0.753269, -0.837360, -0.394958, -0.329317, -0.092897, -0.110266, -0.593757, -0.300608, -0.228760, -0.368167, -0.721215, -0.336397, -0.402442, -0.772595, -0.700644, -0.380862, -0.126245, -0.539213, -0.360862, -0.645183, -0.546008, -0.626855, -0.252005, 0.180730, 0.056683, -0.278069, -0.192714, -0.040735, -0.327289, -0.145258, -0.383646, -0.380651, -0.833403, -0.432487, -0.166644, 0.204028, 0.172554, 0.373170, 0.468891, 0.309505, -0.151849, -0.286544, -0.446204, -0.686832, -0.563800, -0.247326, 0.022494, 0.106314, 0.275118, 0.450360, 0.590687, 0.609435, 0.036396, -0.054336, -0.174242, -0.291599, -0.581367, -0.722288, -0.048485, 0.496205, 0.384942, 0.340725, 0.569286, 0.311528, 0.525071, 0.306349, 0.089135, 0.006490, -0.133367, 0.135601, -0.637090, 0.097689, 0.602625, 0.200108, 0.131654, -0.027015, -0.311505, 0.419500, -0.081328, -0.173843, -0.052503, -0.143025, -0.621057, -0.651310, 0.034751, 0.120253, 0.053527, -0.080192, -0.416028, -0.095951, 0.098209, -0.170667, -0.218892, 0.277394, -0.046073, -0.515487, -0.562905, -0.298622, -0.004942, -0.153733, -0.264622, -0.483621, -0.115480, -0.112796, -0.091826, -0.026666, -0.017725, -0.114964, -0.383082, 0.122969, -0.267778, -0.449226, -0.113980, -0.615070, -0.517258, -0.453801, -0.022907, -0.106521, -0.191543, -0.001114, -0.125266, 0.052408, 0.396734, -0.080382, 0.222677, -0.121131, 0.020688, -0.097817, -0.039999, -0.000920, -0.221189, -0.192540, -0.101763, -0.287586, 0.220360, -0.152034, 0.007537, -0.057788, -0.104818, 0.157463, 0.072645, 0.003133, -0.224907, -0.424012, -0.440877, -0.148897, -0.093677, 0.399611, -0.056175, -0.570399, 0.432707, 0.369500, 0.212173, 0.276354, 0.019416, 0.067241, -0.309623, -0.082219, 0.285800, -0.022143, -0.382525, 0.074002, 0.009814, -0.069958, -0.143983, -0.155787, -0.212304, -0.505986, -0.718681, -0.875398, -0.884334, -1.055176, -0.594033, -0.436883, -0.010065, -0.192260, -0.517358, -0.390900, -0.415276, -0.278926, -0.889585, -1.326926, -1.584974, -0.841190, -0.647446, -1.760694, -0.699875, -0.362420, -0.731488, -0.048174, 0.221149, -0.379131, -0.177652, 0.447066, 0.605464, 0.119962, 0.616771, -0.679147, -1.255364, -2.101647, -0.817961, -1.421558, -0.106912, 0.194610, 0.458177, 1.066596, 0.792967, 0.280953, 0.055032, -0.117169, -0.853282, -0.516536, -0.627104, -0.519045, -1.362944, 0.019140, 0.420361, 0.354201, 0.296827, 0.336367, 0.315783, 0.189178, -0.190954, -0.393786, -0.236186, -0.524000, -0.658074, -0.606242, -0.544907, -0.141123, -0.407697, -0.539386, 0.062464, 0.281374, -0.587524, -0.694559, -0.281188, -0.715936, -0.380116, -0.467255, -0.192682, -1.102633, -0.662522, -1.070567, -0.738789, -0.215086, 0.559576, -0.471932, -0.626643, -0.189176, -0.223920, -0.049296, -0.928481, -0.627009, -0.920788, -0.620372, -1.158772, -0.874864, 0.319577, 0.486002, -0.127603, -0.235981, -0.469633, 0.239101, -0.337966, -1.185457, -0.373592, -0.601501, -0.833354, -0.844327, -0.549272, 0.432402, 0.218598, 0.147810, -0.313916, -0.430124, 0.048363, -0.387727, -1.498894, -0.614383, -0.775593, -0.601925, -0.017458, 0.029481, 0.631314, 0.609646, 0.044481, -0.437469, -0.400571, -0.163931, -0.357049, -0.372993, -0.576427, 0.077512, -0.500805, -0.094188, 0.268314, 0.415897, -0.240653, -0.318568, -0.481730, -0.313029, -0.729528, -0.048949, 0.000396, -0.175882, -0.260081, -0.109994, -0.051024, -0.188808, -0.110930, -0.399434, -0.437908, -0.386150, -0.439267, -0.450674, 0.311071, 0.233389, -0.503084, -0.266798, 0.325147, 0.389608, 0.165341, 0.228276, 0.041415, 0.029926, -0.026075, 0.118112, 0.352140, 0.154120, -0.082472},
};

#endif
